<?xml version="1.0" encoding="UTF-8" standalone="yes"?>
<PMML xmlns="http://www.dmg.org/PMML-4_4" xmlns:data="http://jpmml.org/jpmml-model/InlineTable" version="4.4">
	<Header>
		<Application name="SkLearn2PMML package" version="0.116.4"/>
		<Timestamp>2025-04-16T17:01:25Z</Timestamp>
	</Header>
	<MiningBuildTask>
		<Extension name="repr">PMMLPipeline(steps=[('classifier', LGBMClassifier(bagging_fraction=0.8, bagging_freq=5,
               class_weight={0: 0.2700350148208513, 1: 10.412292817679559,
                             2: 6.105284470540595, 3: 27.06822262118492},
               feature_fraction=0.9, learning_rate=0.05, num_class=4,
               objective='multiclass', random_state=42, verbose=-1))])</Extension>
	</MiningBuildTask>
	<DataDictionary>
		<DataField name="y" optype="categorical" dataType="integer">
			<Value value="0"/>
			<Value value="1"/>
			<Value value="2"/>
			<Value value="3"/>
		</DataField>
		<DataField name="ASN" optype="continuous" dataType="double">
			<Value value="NaN" property="missing"/>
		</DataField>
		<DataField name="TTL" optype="continuous" dataType="double">
			<Value value="NaN" property="missing"/>
		</DataField>
		<DataField name="Name_Server_Count" optype="continuous" dataType="double">
			<Value value="NaN" property="missing"/>
		</DataField>
		<DataField name="Domain_Age" optype="continuous" dataType="double">
			<Value value="NaN" property="missing"/>
		</DataField>
		<DataField name="entropy" optype="continuous" dataType="double">
			<Value value="NaN" property="missing"/>
		</DataField>
		<DataField name="hex_8" optype="continuous" dataType="double">
			<Value value="NaN" property="missing"/>
		</DataField>
		<DataField name="numeric_percentage" optype="continuous" dataType="double">
			<Value value="NaN" property="missing"/>
		</DataField>
		<DataField name="subdomain" optype="continuous" dataType="double">
			<Value value="NaN" property="missing"/>
		</DataField>
		<DataField name="puny_coded" optype="continuous" dataType="double">
			<Value value="NaN" property="missing"/>
		</DataField>
		<DataField name="dec_8" optype="continuous" dataType="double">
			<Value value="NaN" property="missing"/>
		</DataField>
		<DataField name="dec_32" optype="continuous" dataType="double">
			<Value value="NaN" property="missing"/>
		</DataField>
		<DataField name="shortened" optype="continuous" dataType="double">
			<Value value="NaN" property="missing"/>
		</DataField>
		<DataField name="oc_8" optype="continuous" dataType="double">
			<Value value="NaN" property="missing"/>
		</DataField>
		<DataField name="hex_32" optype="continuous" dataType="double">
			<Value value="NaN" property="missing"/>
		</DataField>
		<DataField name="Page_Rank" optype="continuous" dataType="double">
			<Value value="NaN" property="missing"/>
		</DataField>
		<DataField name="oc_32" optype="continuous" dataType="double">
			<Value value="NaN" property="missing"/>
		</DataField>
		<DataField name="Alexa_Rank" optype="continuous" dataType="double">
			<Value value="NaN" property="missing"/>
		</DataField>
		<DataField name="len" optype="continuous" dataType="double">
			<Value value="NaN" property="missing"/>
		</DataField>
		<DataField name="obfuscate_at_sign" optype="continuous" dataType="double">
			<Value value="NaN" property="missing"/>
		</DataField>
		<DataField name="Emails" optype="continuous" dataType="double">
			<Value value="NaN" property="missing"/>
		</DataField>
		<DataField name="Country" optype="continuous" dataType="double">
			<Value value="NaN" property="missing"/>
		</DataField>
		<DataField name="tld" optype="continuous" dataType="double">
			<Value value="NaN" property="missing"/>
		</DataField>
		<DataField name="Organization" optype="continuous" dataType="double">
			<Value value="NaN" property="missing"/>
		</DataField>
		<DataField name="Country.1" optype="continuous" dataType="double">
			<Value value="NaN" property="missing"/>
		</DataField>
		<DataField name="longest_word" optype="continuous" dataType="double">
			<Value value="NaN" property="missing"/>
		</DataField>
		<DataField name="Registrant_Name" optype="continuous" dataType="double">
			<Value value="NaN" property="missing"/>
		</DataField>
		<DataField name="sld" optype="continuous" dataType="double">
			<Value value="NaN" property="missing"/>
		</DataField>
		<DataField name="State" optype="continuous" dataType="double">
			<Value value="NaN" property="missing"/>
		</DataField>
		<DataField name="Registrar" optype="continuous" dataType="double">
			<Value value="NaN" property="missing"/>
		</DataField>
		<DataField name="1gram_count" optype="continuous" dataType="double">
			<Value value="NaN" property="missing"/>
		</DataField>
		<DataField name="2gram_count" optype="continuous" dataType="double">
			<Value value="NaN" property="missing"/>
		</DataField>
		<DataField name="3gram_count" optype="continuous" dataType="double">
			<Value value="NaN" property="missing"/>
		</DataField>
		<DataField name="typos_count" optype="continuous" dataType="double">
			<Value value="NaN" property="missing"/>
		</DataField>
		<DataField name="IP_sum" optype="continuous" dataType="double">
			<Value value="NaN" property="missing"/>
		</DataField>
		<DataField name="days_since_creation" optype="continuous" dataType="double">
			<Value value="NaN" property="missing"/>
		</DataField>
	</DataDictionary>
	<MiningModel functionName="classification" algorithmName="LightGBM">
		<MiningSchema>
			<Extension name="X-FeatureImportances">
				<InlineTable>
					<Extension name="numberOfImportances" value="35"/>
					<Extension name="numberOfNonZeroImportances" value="35"/>
					<Extension name="sumOfImportances" value="11982.0"/>
					<Extension name="minImportance" value="23.0"/>
					<Extension name="maxImportance" value="1416.0"/>
					<row>
						<data:name>longest_word</data:name>
						<data:importance>915.0</data:importance>
					</row>
					<row>
						<data:name>TTL</data:name>
						<data:importance>317.0</data:importance>
					</row>
					<row>
						<data:name>oc_8</data:name>
						<data:importance>478.0</data:importance>
					</row>
					<row>
						<data:name>3gram_count</data:name>
						<data:importance>75.0</data:importance>
					</row>
					<row>
						<data:name>obfuscate_at_sign</data:name>
						<data:importance>259.0</data:importance>
					</row>
					<row>
						<data:name>IP_sum</data:name>
						<data:importance>73.0</data:importance>
					</row>
					<row>
						<data:name>2gram_count</data:name>
						<data:importance>23.0</data:importance>
					</row>
					<row>
						<data:name>len</data:name>
						<data:importance>188.0</data:importance>
					</row>
					<row>
						<data:name>subdomain</data:name>
						<data:importance>124.0</data:importance>
					</row>
					<row>
						<data:name>tld</data:name>
						<data:importance>684.0</data:importance>
					</row>
					<row>
						<data:name>puny_coded</data:name>
						<data:importance>258.0</data:importance>
					</row>
					<row>
						<data:name>Country</data:name>
						<data:importance>1416.0</data:importance>
					</row>
					<row>
						<data:name>Domain_Age</data:name>
						<data:importance>262.0</data:importance>
					</row>
					<row>
						<data:name>dec_8</data:name>
						<data:importance>57.0</data:importance>
					</row>
					<row>
						<data:name>Emails</data:name>
						<data:importance>83.0</data:importance>
					</row>
					<row>
						<data:name>Registrant_Name</data:name>
						<data:importance>591.0</data:importance>
					</row>
					<row>
						<data:name>hex_32</data:name>
						<data:importance>174.0</data:importance>
					</row>
					<row>
						<data:name>Alexa_Rank</data:name>
						<data:importance>187.0</data:importance>
					</row>
					<row>
						<data:name>Organization</data:name>
						<data:importance>869.0</data:importance>
					</row>
					<row>
						<data:name>Page_Rank</data:name>
						<data:importance>209.0</data:importance>
					</row>
					<row>
						<data:name>ASN</data:name>
						<data:importance>349.0</data:importance>
					</row>
					<row>
						<data:name>hex_8</data:name>
						<data:importance>184.0</data:importance>
					</row>
					<row>
						<data:name>Registrar</data:name>
						<data:importance>372.0</data:importance>
					</row>
					<row>
						<data:name>Country.1</data:name>
						<data:importance>684.0</data:importance>
					</row>
					<row>
						<data:name>days_since_creation</data:name>
						<data:importance>45.0</data:importance>
					</row>
					<row>
						<data:name>numeric_percentage</data:name>
						<data:importance>235.0</data:importance>
					</row>
					<row>
						<data:name>dec_32</data:name>
						<data:importance>376.0</data:importance>
					</row>
					<row>
						<data:name>sld</data:name>
						<data:importance>796.0</data:importance>
					</row>
					<row>
						<data:name>typos_count</data:name>
						<data:importance>57.0</data:importance>
					</row>
					<row>
						<data:name>shortened</data:name>
						<data:importance>141.0</data:importance>
					</row>
					<row>
						<data:name>Name_Server_Count</data:name>
						<data:importance>573.0</data:importance>
					</row>
					<row>
						<data:name>entropy</data:name>
						<data:importance>211.0</data:importance>
					</row>
					<row>
						<data:name>1gram_count</data:name>
						<data:importance>58.0</data:importance>
					</row>
					<row>
						<data:name>oc_32</data:name>
						<data:importance>123.0</data:importance>
					</row>
					<row>
						<data:name>State</data:name>
						<data:importance>536.0</data:importance>
					</row>
				</InlineTable>
			</Extension>
			<MiningField name="y" usageType="target"/>
			<MiningField name="ASN" importance="349.0"/>
			<MiningField name="TTL" importance="317.0"/>
			<MiningField name="Name_Server_Count" importance="573.0"/>
			<MiningField name="Domain_Age" importance="262.0"/>
			<MiningField name="entropy" importance="211.0"/>
			<MiningField name="hex_8" importance="184.0"/>
			<MiningField name="numeric_percentage" importance="235.0"/>
			<MiningField name="subdomain" importance="124.0"/>
			<MiningField name="puny_coded" importance="258.0"/>
			<MiningField name="dec_8" importance="57.0"/>
			<MiningField name="dec_32" importance="376.0"/>
			<MiningField name="shortened" importance="141.0"/>
			<MiningField name="oc_8" importance="478.0"/>
			<MiningField name="hex_32" importance="174.0"/>
			<MiningField name="Page_Rank" importance="209.0"/>
			<MiningField name="oc_32" importance="123.0"/>
			<MiningField name="Alexa_Rank" importance="187.0"/>
			<MiningField name="len" importance="188.0"/>
			<MiningField name="obfuscate_at_sign" importance="259.0"/>
			<MiningField name="Emails" importance="83.0"/>
			<MiningField name="Country" importance="1416.0"/>
			<MiningField name="tld" importance="684.0"/>
			<MiningField name="Organization" importance="869.0"/>
			<MiningField name="Country.1" importance="684.0"/>
			<MiningField name="longest_word" importance="915.0"/>
			<MiningField name="Registrant_Name" importance="591.0"/>
			<MiningField name="sld" importance="796.0"/>
			<MiningField name="State" importance="536.0"/>
			<MiningField name="Registrar" importance="372.0"/>
			<MiningField name="1gram_count" importance="58.0"/>
			<MiningField name="2gram_count" importance="23.0"/>
			<MiningField name="3gram_count" importance="75.0"/>
			<MiningField name="typos_count" importance="57.0"/>
			<MiningField name="IP_sum" importance="73.0"/>
			<MiningField name="days_since_creation" importance="45.0"/>
		</MiningSchema>
		<Segmentation multipleModelMethod="modelChain" missingPredictionTreatment="returnMissing">
			<Segment id="1">
				<True/>
				<MiningModel functionName="regression">
					<MiningSchema>
						<MiningField name="ASN"/>
						<MiningField name="TTL"/>
						<MiningField name="Name_Server_Count"/>
						<MiningField name="Domain_Age"/>
						<MiningField name="entropy"/>
						<MiningField name="hex_8"/>
						<MiningField name="numeric_percentage"/>
						<MiningField name="subdomain"/>
						<MiningField name="puny_coded"/>
						<MiningField name="dec_8"/>
						<MiningField name="dec_32"/>
						<MiningField name="shortened"/>
						<MiningField name="oc_8"/>
						<MiningField name="hex_32"/>
						<MiningField name="Page_Rank"/>
						<MiningField name="oc_32"/>
						<MiningField name="Alexa_Rank"/>
						<MiningField name="len"/>
						<MiningField name="obfuscate_at_sign"/>
						<MiningField name="Emails"/>
						<MiningField name="Country"/>
						<MiningField name="tld"/>
						<MiningField name="Organization"/>
						<MiningField name="Country.1"/>
						<MiningField name="longest_word"/>
						<MiningField name="Registrant_Name"/>
						<MiningField name="sld"/>
						<MiningField name="State"/>
						<MiningField name="Registrar"/>
						<MiningField name="1gram_count"/>
						<MiningField name="3gram_count"/>
						<MiningField name="typos_count"/>
						<MiningField name="IP_sum"/>
						<MiningField name="days_since_creation"/>
					</MiningSchema>
					<Output>
						<OutputField name="lgbmValue(0)" optype="continuous" dataType="double" isFinalResult="false"/>
					</Output>
					<Segmentation multipleModelMethod="sum" missingPredictionTreatment="returnMissing">
						<Segment id="1">
							<True/>
							<TreeModel functionName="regression" noTrueChildStrategy="returnLastPrediction">
								<MiningSchema>
									<MiningField name="TTL"/>
									<MiningField name="Name_Server_Count"/>
									<MiningField name="dec_32"/>
									<MiningField name="oc_8"/>
									<MiningField name="hex_32"/>
									<MiningField name="Page_Rank"/>
									<MiningField name="obfuscate_at_sign"/>
									<MiningField name="Country"/>
									<MiningField name="tld"/>
									<MiningField name="Organization"/>
									<MiningField name="Country.1"/>
									<MiningField name="longest_word"/>
									<MiningField name="Registrant_Name"/>
									<MiningField name="1gram_count"/>
									<MiningField name="IP_sum"/>
									<MiningField name="days_since_creation"/>
								</MiningSchema>
								<Node score="-1.4277818566474645">
									<True/>
									<Node score="-1.236258507198153">
										<SimplePredicate field="obfuscate_at_sign" operator="greaterThan" value="1.0000000180025095E-35"/>
										<Node score="-1.236258507198153">
											<SimplePredicate field="Registrant_Name" operator="greaterThan" value="572.5000000000001"/>
											<Node score="-1.436252882632952">
												<SimplePredicate field="Name_Server_Count" operator="greaterThan" value="76.00000000000001"/>
											</Node>
											<Node score="-1.4362528825885423">
												<SimplePredicate field="Page_Rank" operator="greaterThan" value="43.95604395604396"/>
											</Node>
										</Node>
										<Node score="-1.4362528826794896">
											<SimplePredicate field="dec_32" operator="greaterThan" value="526.5000000000001"/>
											<Node score="-1.4326574987635112">
												<SimplePredicate field="Country" operator="greaterThan" value="650.5000000000001"/>
												<Node score="-1.4362528830365922">
													<SimplePredicate field="Page_Rank" operator="greaterThan" value="43.95604395604396"/>
												</Node>
											</Node>
										</Node>
										<Node score="-1.4362528831957653">
											<SimplePredicate field="Name_Server_Count" operator="greaterThan" value="76.00000000000001"/>
										</Node>
									</Node>
									<Node score="-1.236258507198153">
										<SimplePredicate field="Organization" operator="greaterThan" value="6697.500000000001"/>
										<Node score="-1.4362528831957653">
											<SimplePredicate field="Name_Server_Count" operator="greaterThan" value="76.00000000000001"/>
										</Node>
									</Node>
									<Node score="-1.236258507198153">
										<SimplePredicate field="Country.1" operator="greaterThan" value="2353.5000000000005"/>
										<Node score="-1.4362528825406906">
											<SimplePredicate field="Name_Server_Count" operator="greaterThan" value="76.00000000000001"/>
										</Node>
									</Node>
									<Node score="-1.4362528813593922">
										<SimplePredicate field="IP_sum" operator="greaterThan" value="9.500000000000002"/>
										<Node score="-1.4362528831957653">
											<SimplePredicate field="longest_word" operator="greaterThan" value="6500.500000000001"/>
											<Node score="-1.236258507198153">
												<SimplePredicate field="longest_word" operator="greaterThan" value="6538.500000000001"/>
												<Node score="-1.4362528831957653">
													<SimplePredicate field="Country" operator="greaterThan" value="1403.5000000000002"/>
												</Node>
											</Node>
										</Node>
									</Node>
									<Node score="-1.3967131981181538">
										<SimplePredicate field="Country" operator="greaterThan" value="1425.5000000000002"/>
										<Node score="-1.436252882611035">
											<SimplePredicate field="oc_8" operator="greaterThan" value="533104.0000000001"/>
										</Node>
										<Node score="-1.4206157313763088">
											<SimplePredicate field="longest_word" operator="greaterThan" value="6771.500000000001"/>
										</Node>
									</Node>
									<Node score="-1.4362528831957653">
										<SimplePredicate field="Country.1" operator="greaterThan" value="2308.0000000000005"/>
										<Node score="-1.4156495211604847">
											<SimplePredicate field="hex_32" operator="greaterThan" value="18.875000000000004"/>
										</Node>
									</Node>
									<Node score="-1.4362528811835824">
										<SimplePredicate field="tld" operator="greaterThan" value="2660.5000000000005"/>
										<Node score="-1.435147588929509">
											<SimplePredicate field="longest_word" operator="greaterThan" value="13588.500000000002"/>
											<Node score="-1.436252882979285">
												<SimplePredicate field="days_since_creation" operator="greaterThan" value="20193.71185504655"/>
											</Node>
										</Node>
										<Node score="-1.4362528831957653">
											<SimplePredicate field="Organization" operator="greaterThan" value="6669.500000000001"/>
											<Node score="-1.4357355543603791">
												<SimplePredicate field="TTL" operator="greaterThan" value="-1.0000000180025095E-35"/>
											</Node>
										</Node>
										<Node score="-1.4362528829603707">
											<SimplePredicate field="dec_32" operator="greaterThan" value="15.500000000000002"/>
										</Node>
									</Node>
									<Node score="-1.4362528822646548">
										<SimplePredicate field="Name_Server_Count" operator="greaterThan" value="10.500000000000002"/>
									</Node>
									<Node score="-1.4362528826916932">
										<SimplePredicate field="1gram_count" operator="greaterThan" value="2.5000000000000004"/>
									</Node>
									<Node score="-1.236258507198153">
										<SimplePredicate field="Country.1" operator="greaterThan" value="939.0000000000001"/>
									</Node>
								</Node>
							</TreeModel>
						</Segment>
						<Segment id="2">
							<True/>
							<TreeModel functionName="regression" noTrueChildStrategy="returnLastPrediction">
								<MiningSchema>
									<MiningField name="ASN"/>
									<MiningField name="TTL"/>
									<MiningField name="Name_Server_Count"/>
									<MiningField name="entropy"/>
									<MiningField name="obfuscate_at_sign"/>
									<MiningField name="Country"/>
									<MiningField name="tld"/>
									<MiningField name="Organization"/>
									<MiningField name="Country.1"/>
									<MiningField name="longest_word"/>
									<MiningField name="sld"/>
									<MiningField name="State"/>
									<MiningField name="Registrar"/>
									<MiningField name="IP_sum"/>
									<MiningField name="days_since_creation"/>
								</MiningSchema>
								<Node score="-0.0491417804151415">
									<True/>
									<Node score="-0.04914118360543726">
										<SimplePredicate field="obfuscate_at_sign" operator="greaterThan" value="1.0000000180025095E-35"/>
										<Node score="-0.049141499087312565">
											<SimplePredicate field="sld" operator="greaterThan" value="238.50000000000003"/>
											<Node score="0.1357639403702037">
												<SimplePredicate field="Organization" operator="greaterThan" value="509.50000000000006"/>
												<Node score="-0.04914149908731258">
													<SimplePredicate field="Name_Server_Count" operator="greaterThan" value="76.00000000000001"/>
												</Node>
												<Node score="0.12960742562484515">
													<SimplePredicate field="State" operator="greaterThan" value="472.50000000000006"/>
												</Node>
											</Node>
											<Node score="-0.04862095602384194">
												<SimplePredicate field="tld" operator="greaterThan" value="3328.5000000000005"/>
											</Node>
											<Node score="-0.020012501600368344">
												<SimplePredicate field="Registrar" operator="greaterThan" value="167.50000000000003"/>
											</Node>
										</Node>
									</Node>
									<Node score="0.13507121980515377">
										<SimplePredicate field="Organization" operator="greaterThan" value="6697.500000000001"/>
										<Node score="-0.049142263148348665">
											<SimplePredicate field="Name_Server_Count" operator="greaterThan" value="76.00000000000001"/>
										</Node>
										<Node score="0.12960262363422412">
											<SimplePredicate field="TTL" operator="greaterThan" value="0.4987781244591329"/>
										</Node>
									</Node>
									<Node score="0.129803155889454">
										<SimplePredicate field="Country.1" operator="greaterThan" value="2353.5000000000005"/>
										<Node score="-0.04914150670736837">
											<SimplePredicate field="Name_Server_Count" operator="greaterThan" value="76.00000000000001"/>
										</Node>
									</Node>
									<Node score="-0.049141520448625145">
										<SimplePredicate field="IP_sum" operator="greaterThan" value="9.500000000000002"/>
										<Node score="-0.049141499087312586">
											<SimplePredicate field="longest_word" operator="greaterThan" value="6500.500000000001"/>
											<Node score="0.1296026236342241">
												<SimplePredicate field="longest_word" operator="greaterThan" value="6538.500000000001"/>
												<Node score="-0.04914149908731256">
													<SimplePredicate field="Country" operator="greaterThan" value="1403.5000000000002"/>
												</Node>
											</Node>
										</Node>
									</Node>
									<Node score="-0.04917393233874844">
										<SimplePredicate field="Country" operator="greaterThan" value="1425.5000000000002"/>
										<Node score="-0.049342030994184716">
											<SimplePredicate field="Country.1" operator="greaterThan" value="1203.0000000000002"/>
											<Node score="-0.005996419280006169">
												<SimplePredicate field="sld" operator="greaterThan" value="240.50000000000003"/>
											</Node>
										</Node>
									</Node>
									<Node score="-0.049276775098448126">
										<SimplePredicate field="Country.1" operator="greaterThan" value="2308.0000000000005"/>
										<Node score="-0.028030613013800634">
											<SimplePredicate field="sld" operator="greaterThan" value="61.00000000000001"/>
										</Node>
									</Node>
									<Node score="-0.028004974206057444">
										<SimplePredicate field="State" operator="greaterThan" value="27881.500000000004"/>
										<Node score="-0.049084171595807066">
											<SimplePredicate field="ASN" operator="greaterThan" value="7.180823196184873"/>
										</Node>
									</Node>
									<Node score="-0.04914149908731258">
										<SimplePredicate field="Organization" operator="greaterThan" value="1761.5000000000002"/>
										<Node score="-0.04914215003094415">
											<SimplePredicate field="Name_Server_Count" operator="greaterThan" value="76.00000000000001"/>
										</Node>
										<Node score="0.13016023716104871">
											<SimplePredicate field="longest_word" operator="greaterThan" value="5453.500000000001"/>
											<Node score="-0.0491445105916221">
												<SimplePredicate field="days_since_creation" operator="greaterThan" value="20193.71185504655"/>
											</Node>
										</Node>
									</Node>
									<Node score="-0.04914313490617897">
										<SimplePredicate field="longest_word" operator="greaterThan" value="13515.500000000002"/>
										<Node score="-0.0381591703081892">
											<SimplePredicate field="entropy" operator="greaterThan" value="3.5000000000000004"/>
											<Node score="-0.04914586562167186">
												<SimplePredicate field="Name_Server_Count" operator="greaterThan" value="13.16666666666667"/>
											</Node>
										</Node>
									</Node>
								</Node>
							</TreeModel>
						</Segment>
						<Segment id="3">
							<True/>
							<TreeModel functionName="regression" noTrueChildStrategy="returnLastPrediction">
								<MiningSchema>
									<MiningField name="TTL"/>
									<MiningField name="Name_Server_Count"/>
									<MiningField name="entropy"/>
									<MiningField name="hex_32"/>
									<MiningField name="oc_32"/>
									<MiningField name="obfuscate_at_sign"/>
									<MiningField name="Country"/>
									<MiningField name="tld"/>
									<MiningField name="Organization"/>
									<MiningField name="Country.1"/>
									<MiningField name="longest_word"/>
									<MiningField name="sld"/>
									<MiningField name="State"/>
									<MiningField name="Registrar"/>
									<MiningField name="IP_sum"/>
									<MiningField name="days_since_creation"/>
								</MiningSchema>
								<Node score="-0.04833810440084378">
									<True/>
									<Node score="-0.04833900433129765">
										<SimplePredicate field="obfuscate_at_sign" operator="greaterThan" value="1.0000000180025095E-35"/>
										<Node score="-0.04823980766022709">
											<SimplePredicate field="sld" operator="greaterThan" value="238.50000000000003"/>
											<Node score="0.12461738213143858">
												<SimplePredicate field="Organization" operator="greaterThan" value="509.50000000000006"/>
												<Node score="-0.048337194189028765">
													<SimplePredicate field="Name_Server_Count" operator="greaterThan" value="76.00000000000001"/>
												</Node>
												<Node score="0.11453097701377873">
													<SimplePredicate field="State" operator="greaterThan" value="472.50000000000006"/>
												</Node>
											</Node>
											<Node score="-0.047804630182398306">
												<SimplePredicate field="tld" operator="greaterThan" value="3328.5000000000005"/>
											</Node>
											<Node score="-0.018931062547773145">
												<SimplePredicate field="Registrar" operator="greaterThan" value="167.50000000000003"/>
											</Node>
										</Node>
									</Node>
									<Node score="0.12332562797250904">
										<SimplePredicate field="Organization" operator="greaterThan" value="6697.500000000001"/>
										<Node score="-0.04833729016700795">
											<SimplePredicate field="Name_Server_Count" operator="greaterThan" value="76.00000000000001"/>
										</Node>
										<Node score="0.1145272989548875">
											<SimplePredicate field="TTL" operator="greaterThan" value="0.4987781244591329"/>
										</Node>
									</Node>
									<Node score="0.11467984373123974">
										<SimplePredicate field="Country.1" operator="greaterThan" value="2353.5000000000005"/>
										<Node score="-0.04833573713934598">
											<SimplePredicate field="Name_Server_Count" operator="greaterThan" value="76.00000000000001"/>
										</Node>
									</Node>
									<Node score="-0.048337257219883994">
										<SimplePredicate field="IP_sum" operator="greaterThan" value="9.500000000000002"/>
										<Node score="-0.04833721058625809">
											<SimplePredicate field="longest_word" operator="greaterThan" value="6500.500000000001"/>
											<Node score="0.11452734803722578">
												<SimplePredicate field="longest_word" operator="greaterThan" value="6538.500000000001"/>
												<Node score="-0.048337210640983015">
													<SimplePredicate field="Country" operator="greaterThan" value="1403.5000000000002"/>
												</Node>
											</Node>
										</Node>
									</Node>
									<Node score="-0.04840108659960596">
										<SimplePredicate field="Country" operator="greaterThan" value="1425.5000000000002"/>
										<Node score="-0.04852199342211837">
											<SimplePredicate field="Country.1" operator="greaterThan" value="1203.0000000000002"/>
											<Node score="-0.005446074001025597">
												<SimplePredicate field="sld" operator="greaterThan" value="240.50000000000003"/>
											</Node>
										</Node>
									</Node>
									<Node score="-0.04846564147952418">
										<SimplePredicate field="Country.1" operator="greaterThan" value="2308.0000000000005"/>
										<Node score="-0.027046649833441967">
											<SimplePredicate field="hex_32" operator="greaterThan" value="18.875000000000004"/>
										</Node>
									</Node>
									<Node score="-0.048289335830425405">
										<SimplePredicate field="State" operator="greaterThan" value="27881.500000000004"/>
										<Node score="-0.0270674291418488">
											<SimplePredicate field="oc_32" operator="greaterThan" value="-1.0000000180025095E-35"/>
										</Node>
									</Node>
									<Node score="-0.048337210640983036">
										<SimplePredicate field="Organization" operator="greaterThan" value="1761.5000000000002"/>
										<Node score="-0.048338302076451845">
											<SimplePredicate field="Name_Server_Count" operator="greaterThan" value="76.00000000000001"/>
										</Node>
										<Node score="0.1150257557286346">
											<SimplePredicate field="longest_word" operator="greaterThan" value="5453.500000000001"/>
											<Node score="-0.04833996588802636">
												<SimplePredicate field="days_since_creation" operator="greaterThan" value="20193.71185504655"/>
											</Node>
										</Node>
									</Node>
									<Node score="-0.04833880806405297">
										<SimplePredicate field="longest_word" operator="greaterThan" value="13515.500000000002"/>
										<Node score="-0.037172934498125816">
											<SimplePredicate field="entropy" operator="greaterThan" value="3.5000000000000004"/>
											<Node score="-0.04834058779854533">
												<SimplePredicate field="Name_Server_Count" operator="greaterThan" value="13.16666666666667"/>
											</Node>
										</Node>
									</Node>
								</Node>
							</TreeModel>
						</Segment>
						<Segment id="4">
							<True/>
							<TreeModel functionName="regression" noTrueChildStrategy="returnLastPrediction">
								<MiningSchema>
									<MiningField name="ASN"/>
									<MiningField name="TTL"/>
									<MiningField name="Domain_Age"/>
									<MiningField name="entropy"/>
									<MiningField name="hex_8"/>
									<MiningField name="dec_32"/>
									<MiningField name="Page_Rank"/>
									<MiningField name="Alexa_Rank"/>
									<MiningField name="obfuscate_at_sign"/>
									<MiningField name="Country"/>
									<MiningField name="Organization"/>
									<MiningField name="Country.1"/>
									<MiningField name="longest_word"/>
									<MiningField name="sld"/>
									<MiningField name="State"/>
									<MiningField name="IP_sum"/>
								</MiningSchema>
								<Node score="-0.04758513162588873">
									<True/>
									<Node score="-0.04759097516547481">
										<SimplePredicate field="obfuscate_at_sign" operator="greaterThan" value="1.0000000180025095E-35"/>
										<Node score="0.12656374032804785">
											<SimplePredicate field="sld" operator="greaterThan" value="238.50000000000003"/>
											<Node score="-0.04763641365703201">
												<SimplePredicate field="Page_Rank" operator="greaterThan" value="43.95604395604396"/>
											</Node>
											<Node score="0.11069579975360873">
												<SimplePredicate field="Organization" operator="greaterThan" value="509.50000000000006"/>
												<Node score="0.10295273395765986">
													<SimplePredicate field="State" operator="greaterThan" value="472.50000000000006"/>
													<Node score="0.10563518744831762">
														<SimplePredicate field="Country" operator="greaterThan" value="1359.5000000000002"/>
													</Node>
												</Node>
											</Node>
										</Node>
									</Node>
									<Node score="0.10970551780447053">
										<SimplePredicate field="Organization" operator="greaterThan" value="6697.500000000001"/>
										<Node score="-0.04758400737023388">
											<SimplePredicate field="dec_32" operator="greaterThan" value="526.5000000000001"/>
										</Node>
										<Node score="0.10295058352146612">
											<SimplePredicate field="TTL" operator="greaterThan" value="0.4987781244591329"/>
										</Node>
									</Node>
									<Node score="-0.047581582204725636">
										<SimplePredicate field="Country.1" operator="greaterThan" value="2353.5000000000005"/>
										<Node score="0.10796028108894058">
											<SimplePredicate field="Alexa_Rank" operator="greaterThan" value="1.0000000180025095E-35"/>
											<Node score="0.10294704283686346">
												<SimplePredicate field="Country" operator="greaterThan" value="609.5000000000001"/>
											</Node>
										</Node>
									</Node>
									<Node score="-0.04758310917444757">
										<SimplePredicate field="IP_sum" operator="greaterThan" value="9.500000000000002"/>
										<Node score="-0.04758429459355883">
											<SimplePredicate field="longest_word" operator="greaterThan" value="6500.500000000001"/>
											<Node score="0.1029506205307049">
												<SimplePredicate field="longest_word" operator="greaterThan" value="6538.500000000001"/>
												<Node score="0.005161916281802036">
													<SimplePredicate field="Country" operator="greaterThan" value="633.5000000000001"/>
												</Node>
											</Node>
										</Node>
									</Node>
									<Node score="-0.012652987054609348">
										<SimplePredicate field="Country" operator="greaterThan" value="1425.5000000000002"/>
										<Node score="-0.04768026802678259">
											<SimplePredicate field="Page_Rank" operator="greaterThan" value="43.95604395604396"/>
										</Node>
										<Node score="-0.020453278220658382">
											<SimplePredicate field="longest_word" operator="greaterThan" value="6738.500000000001"/>
										</Node>
									</Node>
									<Node score="-0.047824686697268054">
										<SimplePredicate field="Country.1" operator="greaterThan" value="2308.0000000000005"/>
										<Node score="-0.02569914333144098">
											<SimplePredicate field="sld" operator="greaterThan" value="61.00000000000001"/>
										</Node>
									</Node>
									<Node score="-0.026127762853636882">
										<SimplePredicate field="State" operator="greaterThan" value="27881.500000000004"/>
										<Node score="-0.047542428650902205">
											<SimplePredicate field="ASN" operator="greaterThan" value="7.180823196184873"/>
										</Node>
									</Node>
									<Node score="-0.04759178531041455">
										<SimplePredicate field="Organization" operator="greaterThan" value="1761.5000000000002"/>
										<Node score="-0.04758264429088141">
											<SimplePredicate field="dec_32" operator="greaterThan" value="7.500000000000001"/>
										</Node>
										<Node score="0.10334507167004932">
											<SimplePredicate field="hex_8" operator="greaterThan" value="98.3539597102881"/>
											<Node score="-0.04758487285395091">
												<SimplePredicate field="Domain_Age" operator="greaterThan" value="1446071.5000000002"/>
											</Node>
										</Node>
									</Node>
									<Node score="-0.04759049683835753">
										<SimplePredicate field="longest_word" operator="greaterThan" value="13515.500000000002"/>
										<Node score="-0.04727072893268687">
											<SimplePredicate field="entropy" operator="greaterThan" value="3.5000000000000004"/>
											<Node score="-0.03872470876013594">
												<SimplePredicate field="ASN" operator="greaterThan" value="7.180823196184873"/>
											</Node>
										</Node>
									</Node>
								</Node>
							</TreeModel>
						</Segment>
						<Segment id="5">
							<True/>
							<TreeModel functionName="regression" noTrueChildStrategy="returnLastPrediction">
								<MiningSchema>
									<MiningField name="TTL"/>
									<MiningField name="Name_Server_Count"/>
									<MiningField name="Domain_Age"/>
									<MiningField name="entropy"/>
									<MiningField name="hex_8"/>
									<MiningField name="shortened"/>
									<MiningField name="Page_Rank"/>
									<MiningField name="oc_32"/>
									<MiningField name="obfuscate_at_sign"/>
									<MiningField name="Country"/>
									<MiningField name="Country.1"/>
									<MiningField name="longest_word"/>
									<MiningField name="Registrant_Name"/>
									<MiningField name="sld"/>
									<MiningField name="State"/>
									<MiningField name="IP_sum"/>
								</MiningSchema>
								<Node score="-0.046880338350552636">
									<True/>
									<Node score="-0.04688843483994801">
										<SimplePredicate field="obfuscate_at_sign" operator="greaterThan" value="1.0000000180025095E-35"/>
										<Node score="0.10395615727683644">
											<SimplePredicate field="sld" operator="greaterThan" value="238.50000000000003"/>
											<Node score="-0.046931003796176034">
												<SimplePredicate field="Page_Rank" operator="greaterThan" value="43.95604395604396"/>
											</Node>
											<Node score="0.09381735838519444">
												<SimplePredicate field="State" operator="greaterThan" value="472.50000000000006"/>
											</Node>
										</Node>
									</Node>
									<Node score="0.09408315643814656">
										<SimplePredicate field="Country.1" operator="greaterThan" value="2353.5000000000005"/>
										<Node score="-0.046875116635686">
											<SimplePredicate field="Name_Server_Count" operator="greaterThan" value="76.00000000000001"/>
										</Node>
									</Node>
									<Node score="0.09383810755082873">
										<SimplePredicate field="Country" operator="greaterThan" value="642.5000000000001"/>
										<Node score="-0.04687983199870416">
											<SimplePredicate field="Country" operator="greaterThan" value="657.5000000000001"/>
											<Node score="-0.011628388669417927">
												<SimplePredicate field="Country" operator="greaterThan" value="1425.5000000000002"/>
												<Node score="-0.04697463434382064">
													<SimplePredicate field="Page_Rank" operator="greaterThan" value="43.95604395604396"/>
												</Node>
												<Node score="-0.01942541424699042">
													<SimplePredicate field="longest_word" operator="greaterThan" value="6738.500000000001"/>
												</Node>
											</Node>
											<Node score="-0.046925480475751825">
												<SimplePredicate field="shortened" operator="greaterThan" value="1.0000000180025095E-35"/>
												<Node score="-0.04688164112026923">
													<SimplePredicate field="State" operator="greaterThan" value="23667.500000000004"/>
													<Node score="-0.016808598191302676">
														<SimplePredicate field="Registrant_Name" operator="greaterThan" value="413.50000000000006"/>
													</Node>
												</Node>
											</Node>
											<Node score="-0.046891107906492965">
												<SimplePredicate field="entropy" operator="greaterThan" value="-1.0000000180025095E-35"/>
											</Node>
											<Node score="-0.04081196294593037">
												<SimplePredicate field="Country.1" operator="greaterThan" value="860.5000000000001"/>
											</Node>
										</Node>
									</Node>
									<Node score="-0.046877874136463396">
										<SimplePredicate field="IP_sum" operator="greaterThan" value="9.500000000000002"/>
										<Node score="-0.04687984773108124">
											<SimplePredicate field="longest_word" operator="greaterThan" value="6470.500000000001"/>
											<Node score="0.09544626948614161">
												<SimplePredicate field="hex_8" operator="greaterThan" value="98.3539597102881"/>
											</Node>
										</Node>
									</Node>
									<Node score="-0.04687359307288158">
										<SimplePredicate field="entropy" operator="greaterThan" value="-1.0000000180025095E-35"/>
										<Node score="-0.02398585916340065">
											<SimplePredicate field="State" operator="greaterThan" value="27767.500000000004"/>
											<Node score="-0.046939581518666514">
												<SimplePredicate field="State" operator="greaterThan" value="28219.500000000004"/>
											</Node>
										</Node>
										<Node score="-0.031041981535126495">
											<SimplePredicate field="Country.1" operator="greaterThan" value="2308.0000000000005"/>
											<Node score="-0.04719626090097034">
												<SimplePredicate field="Domain_Age" operator="greaterThan" value="23.500000000000004"/>
											</Node>
										</Node>
										<Node score="-0.04690736643844448">
											<SimplePredicate field="longest_word" operator="greaterThan" value="13060.500000000002"/>
											<Node score="-0.04291554508743613">
												<SimplePredicate field="oc_32" operator="greaterThan" value="1122.1755646330785"/>
											</Node>
										</Node>
									</Node>
									<Node score="-0.04688037943612862">
										<SimplePredicate field="Name_Server_Count" operator="greaterThan" value="76.00000000000001"/>
									</Node>
									<Node score="0.10161454465293285">
										<SimplePredicate field="Registrant_Name" operator="greaterThan" value="7347.500000000001"/>
										<Node score="0.09380611664716644">
											<SimplePredicate field="TTL" operator="greaterThan" value="0.4987781244591329"/>
										</Node>
										<Node score="0.11460241698774316">
											<SimplePredicate field="longest_word" operator="greaterThan" value="3431.5000000000005"/>
										</Node>
									</Node>
								</Node>
							</TreeModel>
						</Segment>
						<Segment id="6">
							<True/>
							<TreeModel functionName="regression" noTrueChildStrategy="returnLastPrediction">
								<MiningSchema>
									<MiningField name="ASN"/>
									<MiningField name="Name_Server_Count"/>
									<MiningField name="Domain_Age"/>
									<MiningField name="Page_Rank"/>
									<MiningField name="oc_32"/>
									<MiningField name="obfuscate_at_sign"/>
									<MiningField name="Country"/>
									<MiningField name="Organization"/>
									<MiningField name="Country.1"/>
									<MiningField name="longest_word"/>
									<MiningField name="sld"/>
									<MiningField name="State"/>
									<MiningField name="Registrar"/>
									<MiningField name="IP_sum"/>
								</MiningSchema>
								<Node score="-0.046227097605865415">
									<True/>
									<Node score="-0.046237949560182734">
										<SimplePredicate field="obfuscate_at_sign" operator="greaterThan" value="1.0000000180025095E-35"/>
										<Node score="0.10329905078139122">
											<SimplePredicate field="sld" operator="greaterThan" value="238.50000000000003"/>
											<Node score="-0.04623315356881348">
												<SimplePredicate field="Page_Rank" operator="greaterThan" value="43.95604395604396"/>
											</Node>
											<Node score="-0.04916973607834974">
												<SimplePredicate field="Name_Server_Count" operator="greaterThan" value="76.00000000000001"/>
											</Node>
											<Node score="0.09806809927005687">
												<SimplePredicate field="Organization" operator="greaterThan" value="509.50000000000006"/>
												<Node score="0.0864189665101802">
													<SimplePredicate field="State" operator="greaterThan" value="472.50000000000006"/>
												</Node>
											</Node>
										</Node>
									</Node>
									<Node score="0.0864129105823156">
										<SimplePredicate field="Organization" operator="greaterThan" value="6697.500000000001"/>
										<Node score="-0.04627056497737638">
											<SimplePredicate field="Name_Server_Count" operator="greaterThan" value="76.00000000000001"/>
										</Node>
										<Node score="0.09363699999663871">
											<SimplePredicate field="ASN" operator="greaterThan" value="7.180823196184873"/>
										</Node>
										<Node score="0.08802658772016639">
											<SimplePredicate field="longest_word" operator="greaterThan" value="7697.500000000001"/>
										</Node>
									</Node>
									<Node score="0.1493612199496111">
										<SimplePredicate field="Country.1" operator="greaterThan" value="2339.5000000000005"/>
										<Node score="-0.04654222202861096">
											<SimplePredicate field="Name_Server_Count" operator="greaterThan" value="76.00000000000001"/>
										</Node>
										<Node score="0.09398944003797494">
											<SimplePredicate field="Country.1" operator="greaterThan" value="2353.5000000000005"/>
											<Node score="0.08640549835700655">
												<SimplePredicate field="Country" operator="greaterThan" value="609.5000000000001"/>
											</Node>
										</Node>
									</Node>
									<Node score="-0.04619359889584662">
										<SimplePredicate field="IP_sum" operator="greaterThan" value="9.500000000000002"/>
										<Node score="-0.02730169460889167">
											<SimplePredicate field="longest_word" operator="greaterThan" value="6500.500000000001"/>
											<Node score="-0.04638210336666809">
												<SimplePredicate field="Country" operator="greaterThan" value="1396.5000000000002"/>
											</Node>
											<Node score="0.09014263578282217">
												<SimplePredicate field="Country" operator="greaterThan" value="69.50000000000001"/>
												<Node score="0.08633423027899728">
													<SimplePredicate field="Name_Server_Count" operator="greaterThan" value="2.5000000000000004"/>
												</Node>
											</Node>
										</Node>
									</Node>
									<Node score="-0.046887165834531945">
										<SimplePredicate field="State" operator="greaterThan" value="27881.500000000004"/>
										<Node score="-0.04633645295542111">
											<SimplePredicate field="State" operator="greaterThan" value="28271.500000000004"/>
										</Node>
										<Node score="0.003216102327469458">
											<SimplePredicate field="sld" operator="greaterThan" value="102.50000000000001"/>
										</Node>
									</Node>
									<Node score="0.08685820008394071">
										<SimplePredicate field="Organization" operator="greaterThan" value="1761.5000000000002"/>
										<Node score="-0.04622864896571671">
											<SimplePredicate field="Name_Server_Count" operator="greaterThan" value="76.00000000000001"/>
										</Node>
										<Node score="-0.04622999189889605">
											<SimplePredicate field="Domain_Age" operator="greaterThan" value="1446071.5000000002"/>
										</Node>
										<Node score="0.1565769314579489">
											<SimplePredicate field="Country" operator="greaterThan" value="1425.5000000000002"/>
											<Node score="0.15271164099486814">
												<SimplePredicate field="Country" operator="greaterThan" value="1453.5000000000002"/>
											</Node>
										</Node>
									</Node>
									<Node score="-0.0462618898864549">
										<SimplePredicate field="longest_word" operator="greaterThan" value="13588.500000000002"/>
										<Node score="-0.04216632742397883">
											<SimplePredicate field="oc_32" operator="greaterThan" value="1122.1755646330785"/>
										</Node>
									</Node>
									<Node score="-0.04533652086919032">
										<SimplePredicate field="Registrar" operator="greaterThan" value="711.5000000000001"/>
									</Node>
								</Node>
							</TreeModel>
						</Segment>
						<Segment id="7">
							<True/>
							<TreeModel functionName="regression" noTrueChildStrategy="returnLastPrediction">
								<MiningSchema>
									<MiningField name="ASN"/>
									<MiningField name="Domain_Age"/>
									<MiningField name="entropy"/>
									<MiningField name="hex_8"/>
									<MiningField name="dec_32"/>
									<MiningField name="obfuscate_at_sign"/>
									<MiningField name="Emails"/>
									<MiningField name="Country"/>
									<MiningField name="Organization"/>
									<MiningField name="Country.1"/>
									<MiningField name="longest_word"/>
									<MiningField name="sld"/>
									<MiningField name="State"/>
									<MiningField name="Registrar"/>
									<MiningField name="IP_sum"/>
								</MiningSchema>
								<Node score="-0.04561222411365397">
									<True/>
									<Node score="-0.04562206281201453">
										<SimplePredicate field="obfuscate_at_sign" operator="greaterThan" value="1.0000000180025095E-35"/>
										<Node score="-0.04505349554818896">
											<SimplePredicate field="sld" operator="greaterThan" value="238.50000000000003"/>
											<Node score="-0.04675960403266208">
												<SimplePredicate field="Organization" operator="greaterThan" value="433.50000000000006"/>
												<Node score="0.09438170500433431">
													<SimplePredicate field="Registrar" operator="greaterThan" value="302.50000000000006"/>
													<Node score="0.08993410768066512">
														<SimplePredicate field="Organization" operator="greaterThan" value="509.50000000000006"/>
														<Node score="0.08245072766664703">
															<SimplePredicate field="State" operator="greaterThan" value="472.50000000000006"/>
															<Node score="0.08034352930602184">
																<SimplePredicate field="State" operator="greaterThan" value="627.5000000000001"/>
															</Node>
														</Node>
													</Node>
												</Node>
											</Node>
										</Node>
									</Node>
									<Node score="0.08037307379568859">
										<SimplePredicate field="Organization" operator="greaterThan" value="6697.500000000001"/>
										<Node score="-0.04564197221111128">
											<SimplePredicate field="Emails" operator="greaterThan" value="1216.1593334421016"/>
										</Node>
										<Node score="0.08625699130207093">
											<SimplePredicate field="ASN" operator="greaterThan" value="7.180823196184873"/>
										</Node>
									</Node>
									<Node score="-0.04590127658669756">
										<SimplePredicate field="Country.1" operator="greaterThan" value="2339.5000000000005"/>
										<Node score="0.13278384651620645">
											<SimplePredicate field="State" operator="greaterThan" value="23668.500000000004"/>
											<Node score="0.08878299410053406">
												<SimplePredicate field="Country.1" operator="greaterThan" value="2353.5000000000005"/>
												<Node score="0.08035055202181972">
													<SimplePredicate field="Country" operator="greaterThan" value="609.5000000000001"/>
												</Node>
											</Node>
										</Node>
									</Node>
									<Node score="-0.04555886151279028">
										<SimplePredicate field="IP_sum" operator="greaterThan" value="9.500000000000002"/>
										<Node score="-0.04575607885235417">
											<SimplePredicate field="longest_word" operator="greaterThan" value="6500.500000000001"/>
											<Node score="0.08375301980702209">
												<SimplePredicate field="hex_8" operator="greaterThan" value="98.3539597102881"/>
												<Node score="0.08027151747518091">
													<SimplePredicate field="sld" operator="greaterThan" value="1094.5000000000002"/>
												</Node>
											</Node>
										</Node>
									</Node>
									<Node score="-0.04622388906442271">
										<SimplePredicate field="State" operator="greaterThan" value="27881.500000000004"/>
										<Node score="-0.04571148471156755">
											<SimplePredicate field="State" operator="greaterThan" value="28271.500000000004"/>
										</Node>
										<Node score="0.0032869650457811993">
											<SimplePredicate field="sld" operator="greaterThan" value="102.50000000000001"/>
										</Node>
									</Node>
									<Node score="0.08071730923391786">
										<SimplePredicate field="Organization" operator="greaterThan" value="1761.5000000000002"/>
										<Node score="-0.04561245297166112">
											<SimplePredicate field="dec_32" operator="greaterThan" value="6.333333333333335"/>
										</Node>
										<Node score="-0.045612993760397215">
											<SimplePredicate field="Domain_Age" operator="greaterThan" value="31.000000000000004"/>
										</Node>
										<Node score="0.1415730237799709">
											<SimplePredicate field="Country" operator="greaterThan" value="1425.5000000000002"/>
											<Node score="0.13770897738317245">
												<SimplePredicate field="Country" operator="greaterThan" value="1453.5000000000002"/>
											</Node>
										</Node>
									</Node>
									<Node score="-0.04568961671865246">
										<SimplePredicate field="longest_word" operator="greaterThan" value="13588.500000000002"/>
										<Node score="-0.04473401508022029">
											<SimplePredicate field="entropy" operator="greaterThan" value="3.5000000000000004"/>
											<Node score="-0.037957263342139606">
												<SimplePredicate field="ASN" operator="greaterThan" value="6.500000000000001"/>
											</Node>
										</Node>
									</Node>
									<Node score="-0.044682730244883506">
										<SimplePredicate field="Registrar" operator="greaterThan" value="711.5000000000001"/>
									</Node>
								</Node>
							</TreeModel>
						</Segment>
						<Segment id="8">
							<True/>
							<TreeModel functionName="regression" noTrueChildStrategy="returnLastPrediction">
								<MiningSchema>
									<MiningField name="ASN"/>
									<MiningField name="Name_Server_Count"/>
									<MiningField name="hex_8"/>
									<MiningField name="numeric_percentage"/>
									<MiningField name="oc_8"/>
									<MiningField name="obfuscate_at_sign"/>
									<MiningField name="Country"/>
									<MiningField name="tld"/>
									<MiningField name="Organization"/>
									<MiningField name="Country.1"/>
									<MiningField name="longest_word"/>
									<MiningField name="Registrant_Name"/>
									<MiningField name="sld"/>
									<MiningField name="State"/>
									<MiningField name="1gram_count"/>
									<MiningField name="IP_sum"/>
								</MiningSchema>
								<Node score="0.022625847166810906">
									<True/>
									<Node score="-0.04505224369955436">
										<SimplePredicate field="obfuscate_at_sign" operator="greaterThan" value="1.0000000180025095E-35"/>
										<Node score="-0.04446787501480159">
											<SimplePredicate field="sld" operator="greaterThan" value="238.50000000000003"/>
											<Node score="0.08758405826868255">
												<SimplePredicate field="Organization" operator="greaterThan" value="433.50000000000006"/>
												<Node score="-0.046102529270533404">
													<SimplePredicate field="Name_Server_Count" operator="greaterThan" value="76.00000000000001"/>
												</Node>
												<Node score="0.08290235495078002">
													<SimplePredicate field="Organization" operator="greaterThan" value="509.50000000000006"/>
													<Node score="0.07527713910063684">
														<SimplePredicate field="State" operator="greaterThan" value="627.5000000000001"/>
													</Node>
													<Node score="0.07857775857467164">
														<SimplePredicate field="numeric_percentage" operator="greaterThan" value="16.333333333333336"/>
													</Node>
												</Node>
											</Node>
										</Node>
									</Node>
									<Node score="0.07529843687085408">
										<SimplePredicate field="Organization" operator="greaterThan" value="6697.500000000001"/>
										<Node score="-0.045060929215372816">
											<SimplePredicate field="Name_Server_Count" operator="greaterThan" value="76.00000000000001"/>
										</Node>
										<Node score="0.08019102751755593">
											<SimplePredicate field="ASN" operator="greaterThan" value="7.180823196184873"/>
										</Node>
									</Node>
									<Node score="0.12028872286516833">
										<SimplePredicate field="Country.1" operator="greaterThan" value="2339.5000000000005"/>
										<Node score="-0.045302150115042565">
											<SimplePredicate field="Name_Server_Count" operator="greaterThan" value="76.00000000000001"/>
										</Node>
										<Node score="0.0844368531150984">
											<SimplePredicate field="Country.1" operator="greaterThan" value="2353.5000000000005"/>
											<Node score="0.07529587629806053">
												<SimplePredicate field="Country" operator="greaterThan" value="609.5000000000001"/>
											</Node>
										</Node>
									</Node>
									<Node score="-0.04497492340112019">
										<SimplePredicate field="IP_sum" operator="greaterThan" value="9.500000000000002"/>
										<Node score="-0.04517038381493477">
											<SimplePredicate field="longest_word" operator="greaterThan" value="6500.500000000001"/>
											<Node score="0.07662076109014543">
												<SimplePredicate field="hex_8" operator="greaterThan" value="98.3539597102881"/>
											</Node>
										</Node>
									</Node>
									<Node score="-0.01624932797502923">
										<SimplePredicate field="State" operator="greaterThan" value="27881.500000000004"/>
										<Node score="-0.04515186334492291">
											<SimplePredicate field="ASN" operator="greaterThan" value="7.180823196184873"/>
										</Node>
									</Node>
									<Node score="-0.007593218400468439">
										<SimplePredicate field="Country" operator="greaterThan" value="1425.5000000000002"/>
										<Node score="-0.045145237175855654">
											<SimplePredicate field="Name_Server_Count" operator="greaterThan" value="9.545454545454549"/>
										</Node>
										<Node score="-0.046170693250020656">
											<SimplePredicate field="oc_8" operator="greaterThan" value="533104.0000000001"/>
										</Node>
									</Node>
									<Node score="-0.04503436890814381">
										<SimplePredicate field="tld" operator="greaterThan" value="2660.5000000000005"/>
										<Node score="-0.04526371535116026">
											<SimplePredicate field="longest_word" operator="greaterThan" value="13617.500000000002"/>
											<Node score="-0.04364101025061214">
												<SimplePredicate field="sld" operator="greaterThan" value="238.50000000000003"/>
											</Node>
										</Node>
										<Node score="-0.04425918640433062">
											<SimplePredicate field="tld" operator="greaterThan" value="2810.5000000000005"/>
										</Node>
									</Node>
									<Node score="-0.04505694409476565">
										<SimplePredicate field="Name_Server_Count" operator="greaterThan" value="10.500000000000002"/>
									</Node>
									<Node score="-0.04497711612604852">
										<SimplePredicate field="1gram_count" operator="greaterThan" value="2.5000000000000004"/>
									</Node>
									<Node score="0.1097179594484856">
										<SimplePredicate field="Registrant_Name" operator="greaterThan" value="287.50000000000006"/>
										<Node score="0.07518130970584758">
											<SimplePredicate field="Organization" operator="greaterThan" value="1941.5000000000002"/>
										</Node>
									</Node>
								</Node>
							</TreeModel>
						</Segment>
						<Segment id="9">
							<True/>
							<TreeModel functionName="regression" noTrueChildStrategy="returnLastPrediction">
								<MiningSchema>
									<MiningField name="ASN"/>
									<MiningField name="Name_Server_Count"/>
									<MiningField name="Domain_Age"/>
									<MiningField name="entropy"/>
									<MiningField name="hex_8"/>
									<MiningField name="puny_coded"/>
									<MiningField name="dec_32"/>
									<MiningField name="Page_Rank"/>
									<MiningField name="obfuscate_at_sign"/>
									<MiningField name="Country"/>
									<MiningField name="Organization"/>
									<MiningField name="Country.1"/>
									<MiningField name="longest_word"/>
									<MiningField name="Registrant_Name"/>
									<MiningField name="sld"/>
									<MiningField name="State"/>
									<MiningField name="Registrar"/>
									<MiningField name="IP_sum"/>
									<MiningField name="days_since_creation"/>
								</MiningSchema>
								<Node score="-0.044501492036050735">
									<True/>
									<Node score="-0.044516092994526336">
										<SimplePredicate field="obfuscate_at_sign" operator="greaterThan" value="1.0000000180025095E-35"/>
										<Node score="0.08283785783205193">
											<SimplePredicate field="sld" operator="greaterThan" value="238.50000000000003"/>
											<Node score="-0.04451301459550915">
												<SimplePredicate field="Page_Rank" operator="greaterThan" value="43.95604395604396"/>
											</Node>
											<Node score="-0.046774309422615935">
												<SimplePredicate field="Name_Server_Count" operator="greaterThan" value="76.00000000000001"/>
											</Node>
											<Node score="0.07761948360355174">
												<SimplePredicate field="Organization" operator="greaterThan" value="509.50000000000006"/>
												<Node score="0.07099588800870109">
													<SimplePredicate field="State" operator="greaterThan" value="627.5000000000001"/>
												</Node>
												<Node score="0.07551590844410402">
													<SimplePredicate field="State" operator="greaterThan" value="472.50000000000006"/>
												</Node>
											</Node>
										</Node>
									</Node>
									<Node score="0.07098431528055277">
										<SimplePredicate field="Organization" operator="greaterThan" value="6697.500000000001"/>
										<Node score="-0.044517208702666476">
											<SimplePredicate field="Name_Server_Count" operator="greaterThan" value="76.00000000000001"/>
										</Node>
										<Node score="0.07515121818063619">
											<SimplePredicate field="ASN" operator="greaterThan" value="7.180823196184873"/>
										</Node>
										<Node score="0.07205410668032315">
											<SimplePredicate field="longest_word" operator="greaterThan" value="7697.500000000001"/>
										</Node>
									</Node>
									<Node score="0.10831013289189095">
										<SimplePredicate field="Country.1" operator="greaterThan" value="2339.5000000000005"/>
										<Node score="-0.04473679664307148">
											<SimplePredicate field="Name_Server_Count" operator="greaterThan" value="76.00000000000001"/>
										</Node>
										<Node score="0.07878589194464078">
											<SimplePredicate field="Country.1" operator="greaterThan" value="2353.5000000000005"/>
											<Node score="0.07100999136474596">
												<SimplePredicate field="Country" operator="greaterThan" value="609.5000000000001"/>
											</Node>
										</Node>
									</Node>
									<Node score="-0.032958144773901826">
										<SimplePredicate field="Registrar" operator="greaterThan" value="449.50000000000006"/>
									</Node>
									<Node score="0.12106011972057024">
										<SimplePredicate field="Country" operator="greaterThan" value="1425.5000000000002"/>
										<Node score="-0.0460653186983786">
											<SimplePredicate field="days_since_creation" operator="greaterThan" value="20193.71185504655"/>
										</Node>
										<Node score="-0.04493680963934047">
											<SimplePredicate field="Domain_Age" operator="greaterThan" value="1446071.5000000002"/>
										</Node>
										<Node score="0.016692440153759838">
											<SimplePredicate field="longest_word" operator="greaterThan" value="11875.500000000002"/>
										</Node>
									</Node>
									<Node score="-0.044415411918064335">
										<SimplePredicate field="IP_sum" operator="greaterThan" value="9.500000000000002"/>
										<Node score="-0.02441826229401675">
											<SimplePredicate field="Registrant_Name" operator="greaterThan" value="7347.500000000001"/>
										</Node>
									</Node>
									<Node score="-0.04448384609806921">
										<SimplePredicate field="Organization" operator="greaterThan" value="1761.5000000000002"/>
										<Node score="-0.04450155961461966">
											<SimplePredicate field="dec_32" operator="greaterThan" value="7.500000000000001"/>
										</Node>
										<Node score="0.07121464242111851">
											<SimplePredicate field="hex_8" operator="greaterThan" value="98.3539597102881"/>
											<Node score="-0.020420530088793784">
												<SimplePredicate field="Organization" operator="greaterThan" value="6481.500000000001"/>
											</Node>
										</Node>
									</Node>
									<Node score="-0.04450401911164537">
										<SimplePredicate field="longest_word" operator="greaterThan" value="13588.500000000002"/>
										<Node score="-0.03999270313685223">
											<SimplePredicate field="entropy" operator="greaterThan" value="3.5000000000000004"/>
										</Node>
										<Node score="-0.044930261826973676">
											<SimplePredicate field="puny_coded" operator="greaterThan" value="1831.105952336761"/>
										</Node>
									</Node>
									<Node score="-0.04490735231993973">
										<SimplePredicate field="State" operator="greaterThan" value="27881.500000000004"/>
									</Node>
								</Node>
							</TreeModel>
						</Segment>
						<Segment id="10">
							<True/>
							<TreeModel functionName="regression" noTrueChildStrategy="returnLastPrediction">
								<MiningSchema>
									<MiningField name="ASN"/>
									<MiningField name="Name_Server_Count"/>
									<MiningField name="entropy"/>
									<MiningField name="puny_coded"/>
									<MiningField name="hex_32"/>
									<MiningField name="obfuscate_at_sign"/>
									<MiningField name="Country"/>
									<MiningField name="Organization"/>
									<MiningField name="Country.1"/>
									<MiningField name="longest_word"/>
									<MiningField name="Registrant_Name"/>
									<MiningField name="sld"/>
									<MiningField name="State"/>
									<MiningField name="Registrar"/>
									<MiningField name="IP_sum"/>
									<MiningField name="days_since_creation"/>
								</MiningSchema>
								<Node score="-0.044006649317588825">
									<True/>
									<Node score="-0.0442701158249715">
										<SimplePredicate field="obfuscate_at_sign" operator="greaterThan" value="1.0000000180025095E-35"/>
										<Node score="-0.04341587971338746">
											<SimplePredicate field="sld" operator="greaterThan" value="238.50000000000003"/>
											<Node score="0.07753131869128477">
												<SimplePredicate field="Organization" operator="greaterThan" value="433.50000000000006"/>
												<Node score="-0.04488374247871124">
													<SimplePredicate field="Name_Server_Count" operator="greaterThan" value="76.00000000000001"/>
												</Node>
												<Node score="0.07278770503371199">
													<SimplePredicate field="Organization" operator="greaterThan" value="509.50000000000006"/>
													<Node score="0.0673432598441416">
														<SimplePredicate field="State" operator="greaterThan" value="627.5000000000001"/>
													</Node>
												</Node>
											</Node>
										</Node>
										<Node score="-0.044011106871278044">
											<SimplePredicate field="longest_word" operator="greaterThan" value="1281.5000000000002"/>
										</Node>
									</Node>
									<Node score="0.0673322681667511">
										<SimplePredicate field="Organization" operator="greaterThan" value="6697.500000000001"/>
										<Node score="-0.04401465378133625">
											<SimplePredicate field="Name_Server_Count" operator="greaterThan" value="76.00000000000001"/>
										</Node>
										<Node score="0.07087349002665662">
											<SimplePredicate field="ASN" operator="greaterThan" value="7.180823196184873"/>
										</Node>
										<Node score="0.0682586775977397">
											<SimplePredicate field="longest_word" operator="greaterThan" value="7697.500000000001"/>
										</Node>
									</Node>
									<Node score="0.10066976991706177">
										<SimplePredicate field="Country.1" operator="greaterThan" value="2339.5000000000005"/>
										<Node score="-0.044218000015685995">
											<SimplePredicate field="Name_Server_Count" operator="greaterThan" value="76.00000000000001"/>
										</Node>
										<Node score="0.07569303888034289">
											<SimplePredicate field="Country.1" operator="greaterThan" value="2353.5000000000005"/>
											<Node score="0.0673689680660742">
												<SimplePredicate field="Country" operator="greaterThan" value="609.5000000000001"/>
											</Node>
										</Node>
									</Node>
									<Node score="-0.03212204728892358">
										<SimplePredicate field="Registrar" operator="greaterThan" value="449.50000000000006"/>
									</Node>
									<Node score="-0.045409726968013764">
										<SimplePredicate field="Country" operator="greaterThan" value="1425.5000000000002"/>
										<Node score="0.11388109557188503">
											<SimplePredicate field="hex_32" operator="greaterThan" value="38.50435366108011"/>
											<Node score="-0.044542601304755264">
												<SimplePredicate field="Name_Server_Count" operator="greaterThan" value="9.545454545454549"/>
											</Node>
										</Node>
									</Node>
									<Node score="-0.04391137353316557">
										<SimplePredicate field="IP_sum" operator="greaterThan" value="9.500000000000002"/>
										<Node score="-0.0236227312359312">
											<SimplePredicate field="Registrant_Name" operator="greaterThan" value="7347.500000000001"/>
										</Node>
									</Node>
									<Node score="-0.04400490593258947">
										<SimplePredicate field="Organization" operator="greaterThan" value="1761.5000000000002"/>
										<Node score="-0.04400222671813948">
											<SimplePredicate field="Name_Server_Count" operator="greaterThan" value="76.00000000000001"/>
										</Node>
										<Node score="0.06752101173621543">
											<SimplePredicate field="longest_word" operator="greaterThan" value="5453.500000000001"/>
											<Node score="-0.04399966035041197">
												<SimplePredicate field="days_since_creation" operator="greaterThan" value="20193.71185504655"/>
											</Node>
											<Node score="0.07002087252798019">
												<SimplePredicate field="Organization" operator="greaterThan" value="5810.500000000001"/>
											</Node>
										</Node>
									</Node>
									<Node score="-0.04400312660171426">
										<SimplePredicate field="longest_word" operator="greaterThan" value="13588.500000000002"/>
										<Node score="-0.039304738720594784">
											<SimplePredicate field="entropy" operator="greaterThan" value="3.5000000000000004"/>
										</Node>
										<Node score="-0.04440668633124224">
											<SimplePredicate field="puny_coded" operator="greaterThan" value="1831.105952336761"/>
										</Node>
									</Node>
									<Node score="-0.0436086545565128">
										<SimplePredicate field="Organization" operator="greaterThan" value="1236.5000000000002"/>
									</Node>
								</Node>
							</TreeModel>
						</Segment>
						<Segment id="11">
							<True/>
							<TreeModel functionName="regression" noTrueChildStrategy="returnLastPrediction">
								<MiningSchema>
									<MiningField name="ASN"/>
									<MiningField name="Name_Server_Count"/>
									<MiningField name="Domain_Age"/>
									<MiningField name="Page_Rank"/>
									<MiningField name="oc_32"/>
									<MiningField name="Alexa_Rank"/>
									<MiningField name="obfuscate_at_sign"/>
									<MiningField name="Country"/>
									<MiningField name="tld"/>
									<MiningField name="Organization"/>
									<MiningField name="Country.1"/>
									<MiningField name="Registrant_Name"/>
									<MiningField name="sld"/>
									<MiningField name="State"/>
									<MiningField name="Registrar"/>
									<MiningField name="IP_sum"/>
								</MiningSchema>
								<Node score="-0.043432678861920135">
									<True/>
									<Node score="-0.04355277131921809">
										<SimplePredicate field="obfuscate_at_sign" operator="greaterThan" value="1.0000000180025095E-35"/>
										<Node score="0.07527862822712302">
											<SimplePredicate field="sld" operator="greaterThan" value="238.50000000000003"/>
											<Node score="-0.043554711722480835">
												<SimplePredicate field="Page_Rank" operator="greaterThan" value="43.95604395604396"/>
											</Node>
											<Node score="0.07054866443718814">
												<SimplePredicate field="Organization" operator="greaterThan" value="509.50000000000006"/>
												<Node score="0.0641997569813093">
													<SimplePredicate field="State" operator="greaterThan" value="627.5000000000001"/>
												</Node>
												<Node score="0.06866992726356354">
													<SimplePredicate field="Country" operator="greaterThan" value="633.5000000000001"/>
												</Node>
											</Node>
										</Node>
									</Node>
									<Node score="0.06421440240441603">
										<SimplePredicate field="Organization" operator="greaterThan" value="6697.500000000001"/>
										<Node score="-0.04354918736496214">
											<SimplePredicate field="Name_Server_Count" operator="greaterThan" value="76.00000000000001"/>
										</Node>
										<Node score="0.06707895639094089">
											<SimplePredicate field="ASN" operator="greaterThan" value="7.180823196184873"/>
										</Node>
									</Node>
									<Node score="-0.04361953218337479">
										<SimplePredicate field="Country.1" operator="greaterThan" value="2339.5000000000005"/>
										<Node score="0.09166026507511954">
											<SimplePredicate field="Alexa_Rank" operator="greaterThan" value="1.0000000180025095E-35"/>
											<Node score="0.0730693787163672">
												<SimplePredicate field="Country.1" operator="greaterThan" value="2353.5000000000005"/>
												<Node score="0.06421767379043207">
													<SimplePredicate field="Country" operator="greaterThan" value="609.5000000000001"/>
												</Node>
												<Node score="0.06902994492913161">
													<SimplePredicate field="Organization" operator="greaterThan" value="1116.5000000000002"/>
												</Node>
											</Node>
										</Node>
									</Node>
									<Node score="-0.03228751942064542">
										<SimplePredicate field="Registrar" operator="greaterThan" value="449.50000000000006"/>
									</Node>
									<Node score="5.28119702206271E-4">
										<SimplePredicate field="Country" operator="greaterThan" value="1420.5000000000002"/>
										<Node score="-0.04411623849113209">
											<SimplePredicate field="ASN" operator="greaterThan" value="7.180823196184873"/>
										</Node>
										<Node score="-0.04207995395599581">
											<SimplePredicate field="Country.1" operator="greaterThan" value="1427.5000000000002"/>
										</Node>
										<Node score="0.10425886204507964">
											<SimplePredicate field="Registrant_Name" operator="greaterThan" value="8176.500000000001"/>
										</Node>
									</Node>
									<Node score="-0.04342939508277438">
										<SimplePredicate field="IP_sum" operator="greaterThan" value="9.500000000000002"/>
										<Node score="-0.02560196189617441">
											<SimplePredicate field="Registrant_Name" operator="greaterThan" value="7347.500000000001"/>
										</Node>
									</Node>
									<Node score="-0.043533455557408035">
										<SimplePredicate field="tld" operator="greaterThan" value="2660.5000000000005"/>
										<Node score="-0.04269783920238546">
											<SimplePredicate field="tld" operator="greaterThan" value="2839.5000000000005"/>
										</Node>
										<Node score="-0.04407568121986934">
											<SimplePredicate field="Registrar" operator="greaterThan" value="382.50000000000006"/>
										</Node>
										<Node score="-0.04354077040648758">
											<SimplePredicate field="Domain_Age" operator="greaterThan" value="-1.0000000180025095E-35"/>
										</Node>
										<Node score="-0.04193648851118416">
											<SimplePredicate field="oc_32" operator="greaterThan" value="14.39655172413793"/>
										</Node>
									</Node>
									<Node score="-0.04357148524894028">
										<SimplePredicate field="Name_Server_Count" operator="greaterThan" value="10.500000000000002"/>
									</Node>
									<Node score="0.09409498765107283">
										<SimplePredicate field="sld" operator="greaterThan" value="154.50000000000003"/>
										<Node score="-0.04353068663901756">
											<SimplePredicate field="Name_Server_Count" operator="greaterThan" value="9.545454545454549"/>
										</Node>
										<Node score="0.06490213688099516">
											<SimplePredicate field="Organization" operator="greaterThan" value="2073.0000000000005"/>
										</Node>
									</Node>
								</Node>
							</TreeModel>
						</Segment>
						<Segment id="12">
							<True/>
							<TreeModel functionName="regression" noTrueChildStrategy="returnLastPrediction">
								<MiningSchema>
									<MiningField name="ASN"/>
									<MiningField name="Name_Server_Count"/>
									<MiningField name="entropy"/>
									<MiningField name="hex_32"/>
									<MiningField name="Page_Rank"/>
									<MiningField name="obfuscate_at_sign"/>
									<MiningField name="Country"/>
									<MiningField name="tld"/>
									<MiningField name="Organization"/>
									<MiningField name="Country.1"/>
									<MiningField name="longest_word"/>
									<MiningField name="Registrant_Name"/>
									<MiningField name="sld"/>
									<MiningField name="Registrar"/>
									<MiningField name="IP_sum"/>
								</MiningSchema>
								<Node score="-0.04299284974955876">
									<True/>
									<Node score="-0.043122159819795745">
										<SimplePredicate field="obfuscate_at_sign" operator="greaterThan" value="1.0000000180025095E-35"/>
										<Node score="0.07111916189220999">
											<SimplePredicate field="sld" operator="greaterThan" value="238.50000000000003"/>
											<Node score="-0.04311431160398707">
												<SimplePredicate field="Page_Rank" operator="greaterThan" value="43.95604395604396"/>
											</Node>
											<Node score="0.06177452136555468">
												<SimplePredicate field="Organization" operator="greaterThan" value="509.50000000000006"/>
												<Node score="0.06148086746067114">
													<SimplePredicate field="Registrant_Name" operator="greaterThan" value="572.5000000000001"/>
												</Node>
											</Node>
										</Node>
									</Node>
									<Node score="0.06146210599384262">
										<SimplePredicate field="Organization" operator="greaterThan" value="6697.500000000001"/>
										<Node score="-0.04311271916262704">
											<SimplePredicate field="Name_Server_Count" operator="greaterThan" value="76.00000000000001"/>
										</Node>
										<Node score="0.06396659816242971">
											<SimplePredicate field="ASN" operator="greaterThan" value="7.180823196184873"/>
										</Node>
										<Node score="0.06137706199992912">
											<SimplePredicate field="longest_word" operator="greaterThan" value="7697.500000000001"/>
											<Node score="0.06490039602714015">
												<SimplePredicate field="entropy" operator="greaterThan" value="-1.0000000180025095E-35"/>
											</Node>
										</Node>
									</Node>
									<Node score="0.08603297932019038">
										<SimplePredicate field="Country.1" operator="greaterThan" value="2339.5000000000005"/>
										<Node score="-0.043179645384788794">
											<SimplePredicate field="Name_Server_Count" operator="greaterThan" value="76.00000000000001"/>
										</Node>
										<Node score="0.07016701913031076">
											<SimplePredicate field="Country.1" operator="greaterThan" value="2353.5000000000005"/>
											<Node score="0.0614936623703929">
												<SimplePredicate field="Country" operator="greaterThan" value="609.5000000000001"/>
											</Node>
											<Node score="0.06632885171122352">
												<SimplePredicate field="Organization" operator="greaterThan" value="1116.5000000000002"/>
											</Node>
										</Node>
									</Node>
									<Node score="-0.03146863362343336">
										<SimplePredicate field="Registrar" operator="greaterThan" value="449.50000000000006"/>
									</Node>
									<Node score="-0.043698530011460346">
										<SimplePredicate field="Country" operator="greaterThan" value="1420.5000000000002"/>
										<Node score="0.0072503122258954725">
											<SimplePredicate field="hex_32" operator="greaterThan" value="12.750000000000002"/>
											<Node score="-0.043541017812621596">
												<SimplePredicate field="Name_Server_Count" operator="greaterThan" value="9.545454545454549"/>
											</Node>
											<Node score="0.09739906574905216">
												<SimplePredicate field="Registrant_Name" operator="greaterThan" value="8176.500000000001"/>
											</Node>
										</Node>
									</Node>
									<Node score="-0.043056859834401384">
										<SimplePredicate field="IP_sum" operator="greaterThan" value="9.500000000000002"/>
										<Node score="-0.0199236635738706">
											<SimplePredicate field="longest_word" operator="greaterThan" value="6470.500000000001"/>
										</Node>
									</Node>
									<Node score="-0.043108777518807186">
										<SimplePredicate field="tld" operator="greaterThan" value="2660.5000000000005"/>
										<Node score="-0.04222360677140798">
											<SimplePredicate field="tld" operator="greaterThan" value="2839.5000000000005"/>
										</Node>
										<Node score="-0.04355532863114354">
											<SimplePredicate field="longest_word" operator="greaterThan" value="13617.500000000002"/>
											<Node score="-0.04174392371265135">
												<SimplePredicate field="sld" operator="greaterThan" value="154.50000000000003"/>
											</Node>
										</Node>
									</Node>
									<Node score="-0.043140572250379164">
										<SimplePredicate field="Name_Server_Count" operator="greaterThan" value="10.500000000000002"/>
									</Node>
									<Node score="0.08750242271153658">
										<SimplePredicate field="sld" operator="greaterThan" value="154.50000000000003"/>
										<Node score="-0.04309828093771564">
											<SimplePredicate field="Name_Server_Count" operator="greaterThan" value="9.545454545454549"/>
										</Node>
										<Node score="0.06209186796330973">
											<SimplePredicate field="Organization" operator="greaterThan" value="2073.0000000000005"/>
										</Node>
									</Node>
								</Node>
							</TreeModel>
						</Segment>
						<Segment id="13">
							<True/>
							<TreeModel functionName="regression" noTrueChildStrategy="returnLastPrediction">
								<MiningSchema>
									<MiningField name="ASN"/>
									<MiningField name="Name_Server_Count"/>
									<MiningField name="hex_32"/>
									<MiningField name="Page_Rank"/>
									<MiningField name="obfuscate_at_sign"/>
									<MiningField name="Country"/>
									<MiningField name="tld"/>
									<MiningField name="Organization"/>
									<MiningField name="Country.1"/>
									<MiningField name="longest_word"/>
									<MiningField name="Registrant_Name"/>
									<MiningField name="sld"/>
									<MiningField name="Registrar"/>
									<MiningField name="typos_count"/>
									<MiningField name="IP_sum"/>
								</MiningSchema>
								<Node score="-0.0425872737595709">
									<True/>
									<Node score="-0.04302930130543088">
										<SimplePredicate field="obfuscate_at_sign" operator="greaterThan" value="1.0000000180025095E-35"/>
										<Node score="0.06776851789208309">
											<SimplePredicate field="sld" operator="greaterThan" value="238.50000000000003"/>
											<Node score="-0.0427049549257521">
												<SimplePredicate field="Page_Rank" operator="greaterThan" value="43.95604395604396"/>
											</Node>
											<Node score="0.05910372135065565">
												<SimplePredicate field="Organization" operator="greaterThan" value="509.50000000000006"/>
											</Node>
										</Node>
										<Node score="-0.04271281252413656">
											<SimplePredicate field="longest_word" operator="greaterThan" value="1281.5000000000002"/>
										</Node>
									</Node>
									<Node score="0.05908300897369148">
										<SimplePredicate field="Organization" operator="greaterThan" value="6697.500000000001"/>
										<Node score="-0.042708087007724">
											<SimplePredicate field="Name_Server_Count" operator="greaterThan" value="76.00000000000001"/>
										</Node>
										<Node score="0.06126713724808957">
											<SimplePredicate field="ASN" operator="greaterThan" value="7.180823196184873"/>
										</Node>
										<Node score="0.05977960527191484">
											<SimplePredicate field="longest_word" operator="greaterThan" value="7697.500000000001"/>
										</Node>
									</Node>
									<Node score="0.08150035401379618">
										<SimplePredicate field="Country.1" operator="greaterThan" value="2339.5000000000005"/>
										<Node score="-0.0427707719796909">
											<SimplePredicate field="Name_Server_Count" operator="greaterThan" value="76.00000000000001"/>
										</Node>
										<Node score="0.0678039660062682">
											<SimplePredicate field="Country.1" operator="greaterThan" value="2353.5000000000005"/>
											<Node score="0.05912181341854337">
												<SimplePredicate field="Country" operator="greaterThan" value="609.5000000000001"/>
											</Node>
											<Node score="0.06408156944073508">
												<SimplePredicate field="Organization" operator="greaterThan" value="1116.5000000000002"/>
											</Node>
										</Node>
									</Node>
									<Node score="-0.030654532254201113">
										<SimplePredicate field="Registrar" operator="greaterThan" value="449.50000000000006"/>
									</Node>
									<Node score="-0.043252514152283913">
										<SimplePredicate field="Country" operator="greaterThan" value="1420.5000000000002"/>
										<Node score="-0.04126979859537656">
											<SimplePredicate field="hex_32" operator="greaterThan" value="12.750000000000002"/>
											<Node score="0.09485808579628076">
												<SimplePredicate field="Registrant_Name" operator="greaterThan" value="8138.500000000001"/>
												<Node score="0.09197871632573601">
													<SimplePredicate field="Country" operator="greaterThan" value="1459.0000000000002"/>
												</Node>
											</Node>
										</Node>
									</Node>
									<Node score="-0.04265014232534599">
										<SimplePredicate field="IP_sum" operator="greaterThan" value="9.500000000000002"/>
										<Node score="-0.019178783387486353">
											<SimplePredicate field="longest_word" operator="greaterThan" value="6470.500000000001"/>
										</Node>
									</Node>
									<Node score="-0.04270503654402081">
										<SimplePredicate field="tld" operator="greaterThan" value="2660.5000000000005"/>
										<Node score="-0.04177327772620485">
											<SimplePredicate field="tld" operator="greaterThan" value="2839.5000000000005"/>
										</Node>
										<Node score="-0.04312549912251487">
											<SimplePredicate field="longest_word" operator="greaterThan" value="13617.500000000002"/>
											<Node score="-0.041272942451620394">
												<SimplePredicate field="sld" operator="greaterThan" value="154.50000000000003"/>
											</Node>
										</Node>
										<Node score="-0.042960849091315687">
											<SimplePredicate field="typos_count" operator="greaterThan" value="1.0000000180025095E-35"/>
										</Node>
									</Node>
									<Node score="-0.042740140357482276">
										<SimplePredicate field="Name_Server_Count" operator="greaterThan" value="10.500000000000002"/>
									</Node>
									<Node score="0.0819325056620902">
										<SimplePredicate field="sld" operator="greaterThan" value="154.50000000000003"/>
										<Node score="-0.04269627905317822">
											<SimplePredicate field="Name_Server_Count" operator="greaterThan" value="9.545454545454549"/>
										</Node>
										<Node score="0.05964150540235205">
											<SimplePredicate field="Organization" operator="greaterThan" value="2073.0000000000005"/>
										</Node>
									</Node>
								</Node>
							</TreeModel>
						</Segment>
						<Segment id="14">
							<True/>
							<TreeModel functionName="regression" noTrueChildStrategy="returnLastPrediction">
								<MiningSchema>
									<MiningField name="ASN"/>
									<MiningField name="Name_Server_Count"/>
									<MiningField name="hex_32"/>
									<MiningField name="Page_Rank"/>
									<MiningField name="obfuscate_at_sign"/>
									<MiningField name="Country"/>
									<MiningField name="tld"/>
									<MiningField name="Organization"/>
									<MiningField name="Country.1"/>
									<MiningField name="longest_word"/>
									<MiningField name="Registrant_Name"/>
									<MiningField name="sld"/>
									<MiningField name="State"/>
									<MiningField name="Registrar"/>
									<MiningField name="IP_sum"/>
								</MiningSchema>
								<Node score="-0.04225230399085501">
									<True/>
									<Node score="-0.04270976289769406">
										<SimplePredicate field="obfuscate_at_sign" operator="greaterThan" value="1.0000000180025095E-35"/>
										<Node score="0.06499188196186306">
											<SimplePredicate field="sld" operator="greaterThan" value="238.50000000000003"/>
											<Node score="-0.04233273399006154">
												<SimplePredicate field="Page_Rank" operator="greaterThan" value="43.95604395604396"/>
											</Node>
											<Node score="0.06466323082532027">
												<SimplePredicate field="State" operator="greaterThan" value="627.5000000000001"/>
												<Node score="0.05700388219287507">
													<SimplePredicate field="Organization" operator="greaterThan" value="509.50000000000006"/>
												</Node>
											</Node>
											<Node score="0.06004397447972673">
												<SimplePredicate field="Country" operator="greaterThan" value="633.5000000000001"/>
											</Node>
										</Node>
										<Node score="-0.04234001287854186">
											<SimplePredicate field="longest_word" operator="greaterThan" value="1281.5000000000002"/>
										</Node>
									</Node>
									<Node score="0.0570125540380676">
										<SimplePredicate field="Organization" operator="greaterThan" value="6697.500000000001"/>
										<Node score="-0.04233810704197041">
											<SimplePredicate field="Name_Server_Count" operator="greaterThan" value="76.00000000000001"/>
										</Node>
										<Node score="0.058902088681498">
											<SimplePredicate field="ASN" operator="greaterThan" value="7.180823196184873"/>
										</Node>
									</Node>
									<Node score="0.07762793069453944">
										<SimplePredicate field="Country.1" operator="greaterThan" value="2339.5000000000005"/>
										<Node score="-0.042401935360610925">
											<SimplePredicate field="Name_Server_Count" operator="greaterThan" value="76.00000000000001"/>
										</Node>
										<Node score="0.06580613871909231">
											<SimplePredicate field="Country.1" operator="greaterThan" value="2353.5000000000005"/>
											<Node score="0.057039733178928645">
												<SimplePredicate field="Country" operator="greaterThan" value="609.5000000000001"/>
											</Node>
											<Node score="0.062171549197507586">
												<SimplePredicate field="Country.1" operator="greaterThan" value="2470.5000000000005"/>
											</Node>
										</Node>
									</Node>
									<Node score="-0.029854318118815483">
										<SimplePredicate field="Registrar" operator="greaterThan" value="449.50000000000006"/>
									</Node>
									<Node score="-0.04284441796686217">
										<SimplePredicate field="Country" operator="greaterThan" value="1420.5000000000002"/>
										<Node score="-0.04079242868344394">
											<SimplePredicate field="hex_32" operator="greaterThan" value="12.750000000000002"/>
											<Node score="0.08911445670190697">
												<SimplePredicate field="Registrant_Name" operator="greaterThan" value="8138.500000000001"/>
												<Node score="0.08671822423429017">
													<SimplePredicate field="Country" operator="greaterThan" value="1459.0000000000002"/>
												</Node>
											</Node>
										</Node>
									</Node>
									<Node score="-0.04231723677027111">
										<SimplePredicate field="IP_sum" operator="greaterThan" value="9.500000000000002"/>
										<Node score="-0.018419030045738412">
											<SimplePredicate field="longest_word" operator="greaterThan" value="6470.500000000001"/>
										</Node>
									</Node>
									<Node score="-0.04233375147292233">
										<SimplePredicate field="tld" operator="greaterThan" value="2660.5000000000005"/>
										<Node score="-0.04134742745558137">
											<SimplePredicate field="tld" operator="greaterThan" value="2839.5000000000005"/>
										</Node>
										<Node score="-0.042724745740642056">
											<SimplePredicate field="longest_word" operator="greaterThan" value="13617.500000000002"/>
											<Node score="-0.04082038028955418">
												<SimplePredicate field="sld" operator="greaterThan" value="154.50000000000003"/>
											</Node>
										</Node>
									</Node>
									<Node score="-0.042370818034258934">
										<SimplePredicate field="Name_Server_Count" operator="greaterThan" value="10.500000000000002"/>
									</Node>
									<Node score="0.07718181296505496">
										<SimplePredicate field="sld" operator="greaterThan" value="154.50000000000003"/>
										<Node score="-0.04231800689163475">
											<SimplePredicate field="Name_Server_Count" operator="greaterThan" value="9.545454545454549"/>
										</Node>
										<Node score="0.05749188836275903">
											<SimplePredicate field="Organization" operator="greaterThan" value="2073.0000000000005"/>
										</Node>
									</Node>
								</Node>
							</TreeModel>
						</Segment>
						<Segment id="15">
							<True/>
							<TreeModel functionName="regression" noTrueChildStrategy="returnLastPrediction">
								<MiningSchema>
									<MiningField name="ASN"/>
									<MiningField name="Name_Server_Count"/>
									<MiningField name="hex_32"/>
									<MiningField name="Page_Rank"/>
									<MiningField name="obfuscate_at_sign"/>
									<MiningField name="Country"/>
									<MiningField name="tld"/>
									<MiningField name="Organization"/>
									<MiningField name="Country.1"/>
									<MiningField name="longest_word"/>
									<MiningField name="Registrant_Name"/>
									<MiningField name="sld"/>
									<MiningField name="State"/>
									<MiningField name="Registrar"/>
									<MiningField name="IP_sum"/>
								</MiningSchema>
								<Node score="-0.041915448092460166">
									<True/>
									<Node score="-0.04233995024602044">
										<SimplePredicate field="obfuscate_at_sign" operator="greaterThan" value="1.0000000180025095E-35"/>
										<Node score="0.06316333252555408">
											<SimplePredicate field="sld" operator="greaterThan" value="238.50000000000003"/>
											<Node score="-0.04201425437666634">
												<SimplePredicate field="Page_Rank" operator="greaterThan" value="43.95604395604396"/>
											</Node>
											<Node score="0.062152486033532045">
												<SimplePredicate field="State" operator="greaterThan" value="627.5000000000001"/>
												<Node score="0.05516095292558933">
													<SimplePredicate field="Organization" operator="greaterThan" value="509.50000000000006"/>
												</Node>
											</Node>
											<Node score="0.058700600673540305">
												<SimplePredicate field="Country" operator="greaterThan" value="633.5000000000001"/>
											</Node>
										</Node>
										<Node score="-0.04199202750265653">
											<SimplePredicate field="longest_word" operator="greaterThan" value="1281.5000000000002"/>
										</Node>
									</Node>
									<Node score="0.055167403590808586">
										<SimplePredicate field="Organization" operator="greaterThan" value="6697.500000000001"/>
										<Node score="-0.04199198933703588">
											<SimplePredicate field="Name_Server_Count" operator="greaterThan" value="76.00000000000001"/>
										</Node>
										<Node score="0.057241545929472254">
											<SimplePredicate field="ASN" operator="greaterThan" value="7.180823196184873"/>
										</Node>
									</Node>
									<Node score="0.0730884209370954">
										<SimplePredicate field="Country.1" operator="greaterThan" value="2339.5000000000005"/>
										<Node score="-0.04204558513450266">
											<SimplePredicate field="Name_Server_Count" operator="greaterThan" value="76.00000000000001"/>
										</Node>
										<Node score="0.06282044409675022">
											<SimplePredicate field="Country.1" operator="greaterThan" value="2353.5000000000005"/>
											<Node score="0.05519109921308925">
												<SimplePredicate field="Country" operator="greaterThan" value="609.5000000000001"/>
											</Node>
											<Node score="0.05971419540003669">
												<SimplePredicate field="Country.1" operator="greaterThan" value="2470.5000000000005"/>
											</Node>
										</Node>
									</Node>
									<Node score="-0.02905325149737554">
										<SimplePredicate field="Registrar" operator="greaterThan" value="449.50000000000006"/>
									</Node>
									<Node score="-0.04250404744983306">
										<SimplePredicate field="Country" operator="greaterThan" value="1420.5000000000002"/>
										<Node score="-0.040326027489964264">
											<SimplePredicate field="hex_32" operator="greaterThan" value="12.750000000000002"/>
											<Node score="0.08265476967439994">
												<SimplePredicate field="Registrant_Name" operator="greaterThan" value="8138.500000000001"/>
												<Node score="0.0806222546814187">
													<SimplePredicate field="Country" operator="greaterThan" value="1459.0000000000002"/>
												</Node>
											</Node>
										</Node>
									</Node>
									<Node score="-0.04197424828559073">
										<SimplePredicate field="IP_sum" operator="greaterThan" value="9.500000000000002"/>
										<Node score="-0.017687623517388527">
											<SimplePredicate field="longest_word" operator="greaterThan" value="6470.500000000001"/>
										</Node>
									</Node>
									<Node score="-0.041986538197369846">
										<SimplePredicate field="tld" operator="greaterThan" value="2660.5000000000005"/>
										<Node score="-0.04094289654629727">
											<SimplePredicate field="tld" operator="greaterThan" value="2839.5000000000005"/>
										</Node>
										<Node score="-0.042353701212991236">
											<SimplePredicate field="longest_word" operator="greaterThan" value="13617.500000000002"/>
											<Node score="-0.04038205775655235">
												<SimplePredicate field="sld" operator="greaterThan" value="154.50000000000003"/>
											</Node>
										</Node>
									</Node>
									<Node score="-0.04202475286486614">
										<SimplePredicate field="Name_Server_Count" operator="greaterThan" value="10.500000000000002"/>
									</Node>
									<Node score="0.07321185755171646">
										<SimplePredicate field="sld" operator="greaterThan" value="154.50000000000003"/>
										<Node score="-0.04197069089976688">
